digraph Tree {
node [shape=box, style="filled", color="black"] ;
0 [label="LSU Temp <= 13.5\nentropy = 1.0\nsamples = 87\nvalue = [43.5, 43.5]\nclass = ShouldDo", fillcolor="#ffffff"] ;
1 [label="Humidity <= 4.5\nentropy = 0.274\nsamples = 14\nvalue = [16.632, 0.821]\nclass = ShouldDo", fillcolor="#e68743"] ;
0 -> 1 [labeldistance=2.5, labelangle=45, headlabel="True"] ;
2 [label="entropy = -0.0\nsamples = 9\nvalue = [11.515, 0.0]\nclass = ShouldDo", fillcolor="#e58139"] ;
1 -> 2 ;
3 [label="Humidity <= 5.5\nentropy = 0.58\nsamples = 5\nvalue = [5.118, 0.821]\nclass = ShouldDo", fillcolor="#e99559"] ;
1 -> 3 ;
4 [label="entropy = 0.965\nsamples = 2\nvalue = [1.279, 0.821]\nclass = ShouldDo", fillcolor="#f6d2b8"] ;
3 -> 4 ;
5 [label="entropy = 0.0\nsamples = 3\nvalue = [3.838, 0.0]\nclass = ShouldDo", fillcolor="#e58139"] ;
3 -> 5 ;
6 [label="Page Count <= 848.0\nentropy = 0.962\nsamples = 73\nvalue = [26.868, 42.679]\nclass = NotNecessary", fillcolor="#b6dbf5"] ;
0 -> 6 [labeldistance=2.5, labelangle=-45, headlabel="False"] ;
7 [label="LSU Temp DIF <= 1.5\nentropy = 0.913\nsamples = 67\nvalue = [20.471, 41.858]\nclass = NotNecessary", fillcolor="#9acdf2"] ;
6 -> 7 ;
8 [label="entropy = 0.999\nsamples = 17\nvalue = [8.956, 8.208]\nclass = ShouldDo", fillcolor="#fdf4ee"] ;
7 -> 8 ;
9 [label="entropy = 0.819\nsamples = 50\nvalue = [11.515, 33.651]\nclass = NotNecessary", fillcolor="#7dbfee"] ;
7 -> 9 ;
10 [label="Humidity <= 4.0\nentropy = 0.511\nsamples = 6\nvalue = [6.397, 0.821]\nclass = ShouldDo", fillcolor="#e89152"] ;
6 -> 10 ;
11 [label="entropy = 0.0\nsamples = 1\nvalue = [0.0, 0.821]\nclass = NotNecessary", fillcolor="#399de5"] ;
10 -> 11 ;
12 [label="entropy = 0.0\nsamples = 5\nvalue = [6.397, 0.0]\nclass = ShouldDo", fillcolor="#e58139"] ;
10 -> 12 ;
}